<?xml version="1.0"?>
<opencv_storage>
<stage3>
  <maxWeakCount>30</maxWeakCount>
  <stageThreshold>-1.1977658271789551e+000</stageThreshold>
  <weakClassifiers>
    <_>
      <internalNodes>
        0 -1 23962 1.8271137773990631e-001</internalNodes>
      <leafValues>
        -7.6697820425033569e-001 4.2456141114234924e-001</leafValues></_>
    <_>
      <internalNodes>
        0 -1 66171 5.1452651619911194e-002</internalNodes>
      <leafValues>
        -5.6305402517318726e-001 3.9654546976089478e-001</leafValues></_>
    <_>
      <internalNodes>
        0 -1 68932 4.6431180089712143e-004</internalNodes>
      <leafValues>
        2.7991709113121033e-001 -5.8375144004821777e-001</leafValues></_>
    <_>
      <internalNodes>
        0 -1 78434 -3.7428485229611397e-003</internalNodes>
      <leafValues>
        -7.7396094799041748e-001 1.9468796253204346e-001</leafValues></_>
    <_>
      <internalNodes>
        0 -1 74200 -4.5499801635742188e-003</internalNodes>
      <leafValues>
        2.0961526036262512e-001 -5.9790796041488647e-001</leafValues></_>
    <_>
      <internalNodes>
        0 -1 25008 9.5340757980011404e-005</internalNodes>
      <leafValues>
        -4.6426364779472351e-001 2.5368922948837280e-001</leafValues></_>
    <_>
      <internalNodes>
        0 -1 39861 3.0026800232008100e-004</internalNodes>
      <leafValues>
        2.7696293592453003e-001 -4.8977100849151611e-001</leafValues></_>
    <_>
      <internalNodes>
        0 -1 46126 -2.6124448049813509e-004</internalNodes>
      <leafValues>
        4.2447885870933533e-001 -3.0637252330780029e-001</leafValues></_>
    <_>
      <internalNodes>
        0 -1 54615 -2.7139864396303892e-003</internalNodes>
      <leafValues>
        -8.2867187261581421e-001 1.1311082541942596e-001</leafValues></_>
    <_>
      <internalNodes>
        0 -1 51794 -2.4474915117025375e-002</internalNodes>
      <leafValues>
        5.7803076505661011e-001 -2.2971984744071960e-001</leafValues></_>
    <_>
      <internalNodes>
        0 -1 49102 -1.2236860580742359e-002</internalNodes>
      <leafValues>
        -6.6874927282333374e-001 1.7090995609760284e-001</leafValues></_>
    <_>
      <internalNodes>
        0 -1 5337 -8.9809461496770382e-004</internalNodes>
      <leafValues>
        -7.9731178283691406e-001 1.3327950239181519e-001</leafValues></_>
    <_>
      <internalNodes>
        0 -1 57953 -5.7224297052016482e-005</internalNodes>
      <leafValues>
        3.5152900218963623e-001 -3.0512681603431702e-001</leafValues></_>
    <_>
      <internalNodes>
        0 -1 62478 7.1752059739083052e-004</internalNodes>
      <leafValues>
        1.3342902064323425e-001 -7.7859020233154297e-001</leafValues></_>
    <_>
      <internalNodes>
        0 -1 39864 1.1644368350971490e-004</internalNodes>
      <leafValues>
        1.7769853770732880e-001 -5.0230729579925537e-001</leafValues></_>
    <_>
      <internalNodes>
        0 -1 61354 5.0627039745450020e-003</internalNodes>
      <leafValues>
        1.3527002930641174e-001 -7.4465042352676392e-001</leafValues></_>
    <_>
      <internalNodes>
        0 -1 14759 1.9239350222051144e-003</internalNodes>
      <leafValues>
        1.5518958866596222e-001 -5.9133160114288330e-001</leafValues></_>
    <_>
      <internalNodes>
        0 -1 13860 -1.8384585157036781e-002</internalNodes>
      <leafValues>
        -9.0944820642471313e-001 9.2447578907012939e-002</leafValues></_>
    <_>
      <internalNodes>
        0 -1 12241 8.6543767247349024e-004</internalNodes>
      <leafValues>
        -5.1549351215362549e-001 1.7536145448684692e-001</leafValues></_>
    <_>
      <internalNodes>
        0 -1 40121 1.8022474832832813e-003</internalNodes>
      <leafValues>
        1.3470616936683655e-001 -7.0169824361801147e-001</leafValues></_>
    <_>
      <internalNodes>
        0 -1 75422 8.7976653594523668e-004</internalNodes>
      <leafValues>
        1.5847007930278778e-001 -6.2626034021377563e-001</leafValues></_>
    <_>
      <internalNodes>
        0 -1 72579 -2.3886365815997124e-003</internalNodes>
      <leafValues>
        7.3852574825286865e-001 -1.7777083814144135e-001</leafValues></_>
    <_>
      <internalNodes>
        0 -1 37551 2.4077486246824265e-002</internalNodes>
      <leafValues>
        -2.2934943437576294e-001 4.7002449631690979e-001</leafValues></_>
    <_>
      <internalNodes>
        0 -1 69156 2.7463251352310181e-001</internalNodes>
      <leafValues>
        -1.2089776992797852e-001 8.6462706327438354e-001</leafValues></_>
    <_>
      <internalNodes>
        0 -1 76656 1.7620055587030947e-004</internalNodes>
      <leafValues>
        1.5696275234222412e-001 -7.6472806930541992e-001</leafValues></_>
    <_>
      <internalNodes>
        0 -1 30360 -9.7221992909908295e-003</internalNodes>
      <leafValues>
        7.5751060247421265e-001 -1.5063531696796417e-001</leafValues></_>
    <_>
      <internalNodes>
        0 -1 46979 -5.7432836911175400e-005</internalNodes>
      <leafValues>
        3.1958830356597900e-001 -3.0425933003425598e-001</leafValues></_>
    <_>
      <internalNodes>
        0 -1 4274 5.2013276144862175e-003</internalNodes>
      <leafValues>
        2.3826357722282410e-001 -4.4974738359451294e-001</leafValues></_>
    <_>
      <internalNodes>
        0 -1 51125 -1.2906033080071211e-003</internalNodes>
      <leafValues>
        -8.6451500654220581e-001 9.8787121474742889e-002</leafValues></_>
    <_>
      <internalNodes>
        0 -1 78386 -3.1364048481918871e-005</internalNodes>
      <leafValues>
        4.5856633782386780e-001 -2.4150204658508301e-001</leafValues></_></weakClassifiers></stage3>
</opencv_storage>
